Language model created by QuickLM on Tue Jul  3 22:59:04 EDT 2018
Copyright (c) 1996-2010 Carnegie Mellon University and Alexander I. Rudnicky

The model is in standard ARPA format, designed by Doug Paul while he was at MITRE.

The code that was used to produce this language model is available in Open Source.
Please visit http://www.speech.cs.cmu.edu/tools/ for more information

The (fixed) discount mass is 0.5. The backoffs are computed using the ratio method.
This model based on a corpus of 7 sentences and 9 words

\data\
ngram 1=9
ngram 2=14
ngram 3=7

\1-grams:
-0.7782 </s> -0.3010
-0.7782 <s> -0.2218
-1.6232 停止 -0.2218
-1.6232 向前 -0.2218
-1.6232 向右 -0.2218
-1.6232 向后 -0.2218
-1.6232 向左 -0.2218
-1.6232 起飞 -0.2218
-1.6232 降落 -0.2218

\2-grams:
-1.1461 <s> 停止 0.0000
-1.1461 <s> 向前 0.0000
-1.1461 <s> 向右 0.0000
-1.1461 <s> 向后 0.0000
-1.1461 <s> 向左 0.0000
-1.1461 <s> 起飞 0.0000
-1.1461 <s> 降落 0.0000
-0.3010 停止 </s> -0.3010
-0.3010 向前 </s> -0.3010
-0.3010 向右 </s> -0.3010
-0.3010 向后 </s> -0.3010
-0.3010 向左 </s> -0.3010
-0.3010 起飞 </s> -0.3010
-0.3010 降落 </s> -0.3010

\3-grams:
-0.3010 <s> 停止 </s>
-0.3010 <s> 向前 </s>
-0.3010 <s> 向右 </s>
-0.3010 <s> 向后 </s>
-0.3010 <s> 向左 </s>
-0.3010 <s> 起飞 </s>
-0.3010 <s> 降落 </s>

\end\
